    </Header>

getVersion
        <Application name="Oryx"/>

        <Node recordCount="123.0"/>

    </TreeModel>

PMMLUtils
<PMML xmlns="http://www.dmg.org/PMML-4_2" version="4.2.1">

assertEquals
</PMML>

pmml42
 Actually transforms to latest version:
    <Header>

testPreviousPMMLVersion
<?xml version="1.0" encoding="UTF-8" standalone="yes"?>

    <TreeModel functionName="classification">

model
fromString
