PMMLUtils
<PMML version="4.3" xmlns="http://www.dmg.org/PMML-4_3" 
</TreeModel>
assertEquals
getHeader
buildDummyModel
<Header>
testToString
xmlns:data="http://jpmml.org/jpmml-model/InlineTable">
model
<Application name="Oryx"/>
</PMML>
toString
<Node recordCount="123.0"/>
<TreeModel functionName="classification">
setTimestamp
<?xml version="1.0" encoding="UTF-8" standalone="yes"?>
</Header>
